tensor([[[[ 0.4307,  0.6944,  0.3698,  0.3139,  0.2914],
          [ 0.2104,  0.0214, -0.4392, -0.6690, -0.3436],
          [-0.1365, -0.4419, -0.4710, -0.7104, -0.4093],
          [ 0.0351, -0.0604, -0.6114, -0.4589,  0.2021],
          [ 0.3736, -0.3895, -0.7565, -0.5012,  0.1947]]],


        [[[-0.2131, -0.3950, -0.4402, -0.2679, -0.0889],
          [-0.1663, -0.5006, -0.3690, -0.2242,  0.0938],
          [-0.3907, -0.5417, -0.3761,  0.1319,  0.2144],
          [ 0.1005, -0.1926,  0.1994,  0.1262,  0.2216],
          [ 0.5716,  0.7210,  0.7229,  0.2312,  0.4925]]],


        [[[-0.6768, -0.4048, -0.2240, -0.2765, -0.0728],
          [-0.0936,  0.1979,  0.3307,  0.1109,  0.3855],
          [ 0.3569,  0.7017,  0.3821,  0.7460,  0.7939],
          [ 0.0744,  0.4281,  0.5728,  0.4854,  0.4198],
          [-0.6351, -0.1319,  0.2718, -0.1002, -0.4827]]],


        [[[-0.3459, -0.5704, -0.1587,  0.1216,  0.3992],
          [-0.0398,  0.1263,  0.1624,  0.7535,  0.6286],
          [ 0.3287,  0.1000,  0.0458,  0.8484,  0.2387],
          [-0.1059,  0.1331,  0.2366,  0.7641,  0.2027],
          [-0.7952, -0.2251,  0.6956,  0.7140, -0.2294]]],


        [[[-0.0547, -0.5460, -0.5780, -0.4169, -0.3580],
          [ 0.0154, -0.4357, -0.4552, -0.3087, -0.2069],
          [-0.0454, -0.6605, -0.4658, -0.1267,  0.2521],
          [ 0.0589, -0.0526, -0.0467,  0.3618,  0.3613],
          [ 0.7703,  0.6284,  0.7433,  0.4571,  0.4581]]],


        [[[ 0.1437,  0.4905,  0.3151,  0.2045,  0.3478],
          [ 0.2562,  0.1569, -0.0916,  0.1896,  0.1496],
          [-0.4021, -0.5815, -0.2380, -0.3413,  0.0687],
          [-0.8043, -0.9157, -0.7542, -0.6184, -0.4189],
          [-0.0416,  0.4673,  0.1477,  0.0087, -0.4919]]]])