tensor([[[[ 0.1244, -0.1493, -0.0146,  0.0477,  0.1743],
          [-0.0239,  0.2871,  0.2267,  0.1383,  0.3202],
          [ 0.1834,  0.1193,  0.1421, -0.1285,  0.1061],
          [ 0.0170,  0.0106,  0.0768, -0.0778, -0.2906],
          [-0.0406, -0.0743, -0.3367, -0.2030, -0.0941]]],


        [[[ 0.1758,  0.3150, -0.0165,  0.1826,  0.1142],
          [ 0.1386, -0.0433,  0.1600, -0.0400,  0.0529],
          [-0.0723, -0.1391, -0.0410, -0.1893, -0.1513],
          [-0.0782, -0.2500, -0.1444, -0.0058, -0.0865],
          [-0.2553, -0.0215, -0.1787, -0.2619, -0.0965]]],


        [[[-0.1495,  0.1804, -0.0449,  0.3070,  0.0440],
          [ 0.1083,  0.3689,  0.6660,  0.5582,  0.1240],
          [ 0.3322,  0.7476,  0.9214,  0.6757,  0.3252],
          [-0.0863,  0.3971,  0.7247,  0.6371,  0.0807],
          [-0.2468, -0.0960,  0.3668,  0.1745, -0.1969]]],


        [[[-0.2203,  0.1124,  0.0034,  0.0944,  0.2263],
          [ 0.1690, -0.0483, -0.2508, -0.1139,  0.1182],
          [-0.0881,  0.0216, -0.2810,  0.0250,  0.2201],
          [-0.0547,  0.0012, -0.1117,  0.0741,  0.2077],
          [ 0.1173,  0.2073, -0.1948, -0.1563, -0.1251]]],


        [[[-0.3088, -0.3155, -0.5156, -0.2828, -0.3735],
          [-0.1262, -0.1051,  0.1228, -0.0169,  0.2739],
          [-0.0584,  0.3334,  0.7212,  0.6966,  0.5047],
          [ 0.2515,  0.4761,  0.8329,  0.7151,  0.6172],
          [ 0.0883,  0.1113,  0.3359,  0.5168,  0.2706]]],


        [[[-0.0122,  0.0359,  0.1739,  0.1615,  0.2309],
          [ 0.4087,  0.6587,  0.9297,  0.7907,  0.4458],
          [ 0.5063,  0.6683,  1.0528,  0.5840,  0.3452],
          [ 0.3164,  0.6008,  0.5325, -0.0866,  0.0125],
          [-0.1916, -0.1674, -0.3239, -0.3981, -0.4130]]]])