tensor([[[[-0.1199, -0.1064, -0.0573, -0.1749, -0.1684],
          [-0.0455, -0.1263, -0.2955, -0.2654, -0.2138],
          [ 0.1159,  0.0223, -0.2668, -0.3002, -0.3382],
          [ 0.2408,  0.1799, -0.0469, -0.3027, -0.1982],
          [ 0.1344,  0.1866,  0.0343, -0.1734, -0.0739]],

         [[-0.0162,  0.0051, -0.0064,  0.0502, -0.0158],
          [-0.1753, -0.2742, -0.1985, -0.1619, -0.1435],
          [-0.0781, -0.2968, -0.3196, -0.1768, -0.1882],
          [ 0.0452,  0.0974,  0.0114, -0.1017, -0.1234],
          [ 0.2724,  0.3140,  0.2769,  0.0185, -0.1905]],

         [[ 0.0135,  0.0138,  0.0182, -0.0075,  0.0552],
          [ 0.1257,  0.1749,  0.1714,  0.2160,  0.1685],
          [-0.1289,  0.0237,  0.1334,  0.2023,  0.1689],
          [-0.2996, -0.3041,  0.0473,  0.2586,  0.1635],
          [-0.1773, -0.1908, -0.0587,  0.0835,  0.1270]],

         [[ 0.1693,  0.1165,  0.1306,  0.0063,  0.0614],
          [ 0.0857,  0.2831,  0.2266,  0.1590,  0.0904],
          [ 0.0271,  0.0507,  0.2864,  0.2299,  0.0903],
          [-0.1547, -0.0559,  0.1762,  0.2564,  0.1469],
          [-0.0420, -0.1129,  0.0710,  0.0511, -0.0050]],

         [[-0.1134, -0.0739,  0.0680,  0.0123, -0.0944],
          [-0.1507, -0.1398, -0.1415, -0.0644, -0.1039],
          [-0.2458, -0.2452, -0.2487, -0.2267, -0.1511],
          [-0.0363, -0.0821, -0.1580, -0.2159, -0.2549],
          [ 0.2888,  0.2281,  0.1232, -0.1479, -0.2116]],

         [[-0.1802, -0.1866, -0.1480, -0.1149, -0.0516],
          [ 0.0372, -0.0094, -0.1132, -0.2756, -0.1395],
          [ 0.2805,  0.2177, -0.0197, -0.1399, -0.2241],
          [ 0.3683,  0.3619,  0.1044, -0.1865, -0.2460],
          [ 0.1990,  0.2202,  0.0875,  0.0679, -0.0687]]],


        [[[-0.1174, -0.2601, -0.3367, -0.2396, -0.1855],
          [ 0.1708,  0.0916, -0.0440, -0.0489,  0.0179],
          [ 0.3159,  0.3324,  0.3011,  0.2723,  0.1824],
          [ 0.2017,  0.2285,  0.1026,  0.2144,  0.0825],
          [ 0.0751,  0.2849,  0.2184,  0.1119,  0.0462]],

         [[-0.0840, -0.1737, -0.2025, -0.3043, -0.1753],
          [-0.0722, -0.1538, -0.2460, -0.3223, -0.4679],
          [ 0.0795,  0.1171,  0.0653,  0.0012, -0.0244],
          [ 0.2242,  0.1973,  0.1666,  0.1968,  0.2119],
          [-0.0216, -0.0494, -0.0470,  0.1188,  0.0477]],

         [[-0.0237,  0.2061,  0.3062,  0.1814,  0.1534],
          [-0.2107, -0.0351, -0.0927,  0.0320,  0.1128],
          [-0.3983, -0.3590, -0.1667, -0.2547, -0.2877],
          [-0.2212, -0.1406, -0.1887, -0.1396, -0.1960],
          [-0.0021, -0.1750, -0.2771, -0.2069, -0.0947]],

         [[ 0.1239,  0.1912,  0.3850,  0.2476,  0.1559],
          [-0.2169,  0.0486,  0.0312,  0.1451, -0.0051],
          [-0.2956, -0.2986, -0.2415, -0.1711, -0.1591],
          [-0.3240, -0.2518, -0.2312, -0.1589, -0.1512],
          [-0.1483, -0.2501, -0.1621, -0.2162, -0.0515]],

         [[-0.0706, -0.2157, -0.3443, -0.1976, -0.2080],
          [-0.1068, -0.3956, -0.4778, -0.4894, -0.5151],
          [ 0.0512,  0.0298,  0.0561, -0.0348, -0.2055],
          [ 0.2948,  0.2751,  0.2413,  0.1655,  0.0907],
          [ 0.0417,  0.0440,  0.0202,  0.0817,  0.1511]],

         [[ 0.1649, -0.1061, -0.0945, -0.2621, -0.3275],
          [ 0.2765,  0.3311,  0.3434,  0.2050,  0.1183],
          [ 0.2251,  0.1677,  0.1502,  0.1307,  0.1177],
          [-0.0744, -0.0190,  0.0186, -0.0413, -0.1281],
          [-0.1200,  0.0336,  0.2212,  0.0562, -0.0413]]],


        [[[ 0.0770,  0.0630,  0.1129, -0.0584, -0.0337],
          [ 0.2535,  0.2766,  0.2916,  0.3310,  0.1069],
          [ 0.2535,  0.2845,  0.1435,  0.0900,  0.0441],
          [ 0.0842,  0.0170, -0.1430, -0.1072, -0.0418],
          [-0.1389, -0.1121, -0.1018,  0.1176,  0.0274]],

         [[-0.1023, -0.1421, -0.0901, -0.1180, -0.0698],
          [ 0.0187, -0.0570, -0.0244, -0.0792, -0.1044],
          [ 0.2112,  0.2212,  0.2313,  0.3208,  0.1812],
          [ 0.2423,  0.2964,  0.2205, -0.0039, -0.0072],
          [-0.0401, -0.2281, -0.3592, -0.3229, -0.1029]],

         [[ 0.1053,  0.1350,  0.1209,  0.1984,  0.2480],
          [-0.0584, -0.0464, -0.0683,  0.0188,  0.0901],
          [-0.1216, -0.0987, -0.0751, -0.0521,  0.1824],
          [ 0.1051,  0.1201,  0.1861,  0.3128,  0.1934],
          [ 0.2126,  0.3335,  0.2615,  0.0744, -0.0119]],

         [[ 0.0508,  0.1394,  0.0754, -0.0280, -0.0106],
          [-0.1638, -0.1151, -0.1961, -0.2619, -0.0961],
          [-0.2358, -0.2081, -0.2863, -0.1864, -0.0221],
          [-0.1005,  0.0573,  0.0373,  0.0680,  0.1074],
          [-0.0024,  0.0828,  0.0289, -0.0276, -0.0276]],

         [[-0.0669, -0.1199, -0.0587, -0.1341, -0.2482],
          [-0.1048,  0.0453, -0.0430, -0.0587, -0.2111],
          [ 0.2160,  0.4093,  0.4061,  0.2651,  0.1982],
          [ 0.3520,  0.2907,  0.2592,  0.0079, -0.0964],
          [-0.0229, -0.2937, -0.3806, -0.3451, -0.1241]],

         [[ 0.0365,  0.0199, -0.1062, -0.1498, -0.0925],
          [ 0.2392,  0.2331,  0.1178,  0.1341, -0.0430],
          [ 0.0677, -0.0675, -0.2222, -0.1706, -0.2477],
          [-0.2278, -0.3241, -0.3148, -0.2740, -0.1163],
          [-0.0733, -0.0789,  0.0758,  0.0863,  0.0815]]],


        ...,


        [[[ 0.0399,  0.1669,  0.0228,  0.0957,  0.1464],
          [ 0.1013,  0.2542, -0.0128,  0.0925,  0.2414],
          [ 0.1542,  0.0763, -0.0972,  0.1465,  0.2732],
          [-0.0568, -0.0323, -0.0165,  0.0438,  0.1212],
          [ 0.0533,  0.0772, -0.0871, -0.0404,  0.0670]],

         [[-0.0758,  0.0651,  0.0224,  0.0295, -0.0175],
          [ 0.0095,  0.0662,  0.1713,  0.0589, -0.0814],
          [ 0.1661,  0.1758,  0.0444, -0.0918,  0.0083],
          [ 0.0122, -0.0586, -0.2118, -0.1495,  0.0677],
          [-0.0994, -0.0291, -0.2328, -0.2834, -0.1402]],

         [[-0.0540, -0.0881, -0.0134,  0.0022,  0.0166],
          [-0.2041, -0.2175, -0.1026, -0.0461, -0.1320],
          [-0.1405,  0.0923,  0.0542, -0.0719, -0.2542],
          [ 0.0725,  0.1714,  0.1178,  0.0079, -0.1352],
          [ 0.1245,  0.1191,  0.2213,  0.0862,  0.0664]],

         [[-0.0336, -0.1866, -0.1312, -0.0341, -0.0163],
          [-0.2779, -0.1682, -0.0695, -0.1342, -0.1039],
          [-0.1835, -0.0317,  0.0892, -0.1980, -0.2068],
          [-0.0751, -0.0583,  0.0717, -0.1371, -0.1210],
          [-0.0749, -0.1069,  0.1140, -0.0234, -0.0590]],

         [[ 0.0404,  0.0571,  0.0565, -0.1265, -0.1257],
          [ 0.0927,  0.1412,  0.0795,  0.0466, -0.0295],
          [ 0.2556,  0.2305,  0.0793, -0.0807,  0.0844],
          [ 0.1501, -0.0452, -0.1811, -0.0805,  0.1180],
          [-0.0336, -0.1062, -0.1601, -0.1812,  0.0244]],

         [[-0.0211,  0.0203,  0.0652, -0.1343,  0.0802],
          [ 0.0326, -0.0567, -0.1162, -0.0709,  0.0734],
          [-0.1915, -0.3194, -0.2684, -0.0315,  0.1128],
          [-0.3822, -0.2915, -0.1882, -0.1519, -0.0225],
          [-0.3564, -0.2641, -0.2470, -0.3054, -0.2285]]],


        [[[ 0.1217,  0.2988,  0.3202,  0.2736,  0.2089],
          [ 0.0376,  0.0314, -0.0473, -0.1301, -0.1514],
          [-0.3362, -0.1748, -0.3397, -0.4217, -0.4311],
          [-0.2479, -0.1705, -0.2566, -0.2633, -0.3251],
          [ 0.0956,  0.1144, -0.0688, -0.2157, -0.1081]],

         [[-0.0046,  0.0302, -0.0636,  0.0459,  0.1030],
          [ 0.0575,  0.2232,  0.2296,  0.2431,  0.3215],
          [ 0.1612,  0.3106,  0.1812,  0.0917,  0.0453],
          [-0.1386, -0.0862, -0.0846, -0.1390, -0.2847],
          [-0.2459, -0.1848,  0.0274, -0.0679, -0.1151]],

         [[-0.0231, -0.1488, -0.1244, -0.1958, -0.0421],
          [-0.0376, -0.0476, -0.1002,  0.0935,  0.0095],
          [ 0.2045,  0.2404,  0.3641,  0.4260,  0.3765],
          [ 0.2559,  0.2516,  0.1999,  0.2623,  0.3208],
          [ 0.0201, -0.0042,  0.1436,  0.0948,  0.1705]],

         [[-0.0201, -0.0820, -0.1218, -0.1423, -0.1452],
          [ 0.0471, -0.0221, -0.0730,  0.0735, -0.0123],
          [ 0.1693,  0.2322,  0.2184,  0.2938,  0.3885],
          [ 0.3594,  0.1523,  0.0958,  0.1450,  0.3260],
          [ 0.0770, -0.0055,  0.1928,  0.0783,  0.0855]],

         [[-0.0201, -0.0127,  0.0133,  0.0572,  0.1325],
          [ 0.1436,  0.2093,  0.2825,  0.3589,  0.4649],
          [ 0.2654,  0.2683,  0.1440, -0.0095, -0.0878],
          [-0.0335, -0.1090, -0.1580, -0.2237, -0.4173],
          [-0.3370, -0.1635,  0.0499, -0.0832, -0.1961]],

         [[ 0.0461,  0.2292,  0.2330,  0.2820,  0.2805],
          [-0.0173,  0.0791, -0.0656, -0.1943, -0.2834],
          [-0.3598, -0.3966, -0.2617, -0.2575, -0.3268],
          [-0.2016, -0.0695, -0.0566,  0.0348,  0.0118],
          [ 0.1571,  0.2038,  0.1077, -0.1081,  0.1158]]],


        [[[-0.0484, -0.2043, -0.1959, -0.2862, -0.3072],
          [ 0.1883,  0.0066,  0.0124, -0.0976, -0.0388],
          [ 0.1674,  0.2565,  0.2820,  0.3115,  0.2910],
          [-0.0669,  0.0502,  0.2178,  0.1431, -0.0495],
          [-0.0746,  0.0556,  0.0680, -0.0643, -0.3459]],

         [[-0.1433, -0.0908, -0.0752,  0.1502,  0.0822],
          [-0.2521, -0.2864, -0.3015, -0.2883, -0.3629],
          [ 0.0739,  0.1466,  0.0474,  0.0976,  0.0196],
          [ 0.0860,  0.1858,  0.2446,  0.3374,  0.3723],
          [-0.0174, -0.1019, -0.0460,  0.0492, -0.0516]],

         [[-0.1043,  0.0332, -0.0230,  0.0762,  0.1257],
          [-0.3524, -0.2146, -0.0156,  0.0122, -0.0286],
          [-0.4984, -0.4218, -0.5229, -0.5090, -0.4041],
          [-0.1928, -0.3258, -0.3676, -0.2745, -0.0826],
          [-0.0287, -0.2129, -0.1712,  0.0442,  0.2270]],

         [[-0.0701,  0.0436,  0.0814,  0.1246,  0.2107],
          [-0.2138, -0.1158,  0.0166,  0.0164,  0.0768],
          [-0.3369, -0.1939, -0.2908, -0.2641, -0.2171],
          [-0.1832, -0.1707, -0.2325, -0.2263,  0.0051],
          [-0.0366, -0.2166, -0.1150,  0.1036,  0.1368]],

         [[-0.1497, -0.2289,  0.0143,  0.1082,  0.1240],
          [-0.1450, -0.2452, -0.3509, -0.3031, -0.3115],
          [ 0.1808,  0.0346, -0.0143, -0.0372, -0.0602],
          [ 0.1602,  0.2806,  0.3002,  0.5028,  0.4432],
          [-0.0473, -0.0621,  0.0392,  0.1681, -0.0330]],

         [[ 0.0295, -0.0786, -0.1978, -0.2317, -0.2116],
          [ 0.2894,  0.2729,  0.1622,  0.0934,  0.0121],
          [ 0.2049,  0.2250,  0.3969,  0.3338,  0.2570],
          [-0.1404, -0.1184, -0.0659, -0.2536, -0.2738],
          [-0.2508, -0.1333, -0.0563, -0.3123, -0.2842]]]])