tensor([[[[ 0.0000,  0.0000, -0.0000,  0.0000,  0.0000],
          [ 0.0000,  0.0000,  0.0000,  0.0000,  0.0000],
          [ 0.0000,  0.0000,  0.0000, -0.0000,  0.0000],
          [ 0.0000,  0.0000,  0.0000, -0.0000, -0.0000],
          [-0.0000, -0.0000, -0.0000, -0.0000, -0.0000]]],


        [[[ 0.0000,  0.0000, -0.0000,  0.0000,  0.0000],
          [ 0.0000, -0.0000,  0.0000, -0.0000,  0.0000],
          [-0.0000, -0.0000, -0.0000, -0.0000,  0.0000],
          [-0.0000, -0.0000, -0.0000, -0.0000,  0.0000],
          [-0.0000, -0.0000, -0.0000, -0.0000,  0.0000]]],


        [[[-0.1412,  0.2165,  0.0156,  0.3667,  0.0836],
          [ 0.1433,  0.4469,  0.7718,  0.6596,  0.1978],
          [ 0.3890,  0.8496,  1.0460,  0.7868,  0.4012],
          [-0.0283,  0.4923,  0.8328,  0.7233,  0.1297],
          [-0.2058, -0.0307,  0.4336,  0.2154, -0.1876]]],


        [[[-0.0000,  0.0000,  0.0000,  0.0000,  0.0000],
          [ 0.0000, -0.0000, -0.0000, -0.0000,  0.0000],
          [-0.0000,  0.0000, -0.0000,  0.0000,  0.0000],
          [-0.0000,  0.0000, -0.0000,  0.0000,  0.0000],
          [ 0.0000,  0.0000, -0.0000,  0.0000,  0.0000]]],


        [[[-0.3059, -0.3030, -0.4950, -0.2613, -0.3580],
          [-0.1105, -0.0723,  0.1745,  0.0414,  0.3267],
          [-0.0219,  0.3971,  0.8119,  0.7970,  0.5942],
          [ 0.3022,  0.5625,  0.9484,  0.8339,  0.7151],
          [ 0.1355,  0.1905,  0.4330,  0.6060,  0.3340]]],


        [[[ 0.0145,  0.0918,  0.2479,  0.2311,  0.2806],
          [ 0.4735,  0.7597,  1.0482,  0.8998,  0.5277],
          [ 0.5905,  0.7838,  1.1744,  0.6836,  0.4122],
          [ 0.3889,  0.6928,  0.6179, -0.0281,  0.0433],
          [-0.1439, -0.1132, -0.2814, -0.3775, -0.4077]]]])