tensor([-0.0406, -0.0304,  0.0027, -0.0455,  0.0385, -0.0540, -0.0154,  0.0816,
        -0.0250,  0.0013, -0.0113, -0.0422, -0.0659, -0.0544, -0.0831,  0.0222,
        -0.0243, -0.0319,  0.0046,  0.0239, -0.0341,  0.0373, -0.0501, -0.0080,
         0.0336, -0.0131, -0.0403, -0.0128, -0.0583,  0.0154,  0.0152,  0.0132,
         0.0078, -0.0693,  0.0092, -0.0597,  0.0002,  0.0490, -0.0025, -0.0542,
        -0.0154,  0.0499,  0.0409, -0.0322,  0.0323, -0.0491, -0.0703,  0.0371,
        -0.0210,  0.0522, -0.0040,  0.0522,  0.0166, -0.0188, -0.0566, -0.0390,
        -0.0018,  0.0127, -0.0304,  0.0021, -0.0119, -0.0295, -0.0245, -0.0128,
         0.0556, -0.0219, -0.0375,  0.0455,  0.0453, -0.0122, -0.0547, -0.0096,
         0.0274, -0.0130,  0.0550, -0.0188, -0.0603,  0.0191, -0.0114, -0.0444,
         0.0778, -0.0074,  0.0283,  0.0035,  0.0033, -0.0821, -0.0512,  0.0547,
         0.0215, -0.0012,  0.0251,  0.0106,  0.0412, -0.0385, -0.0422,  0.0418,
        -0.0384,  0.0512, -0.0185,  0.0303, -0.0323, -0.0071, -0.0271, -0.0186,
         0.0505,  0.0528, -0.0273, -0.0192, -0.0096,  0.0244, -0.0020,  0.0129,
         0.0086,  0.0080, -0.0433,  0.0433, -0.0252,  0.0040,  0.0267, -0.0462])