tensor([[[[-0.1061, -0.1498, -0.4294, -0.4799, -0.6783],
          [-0.3983, -0.3611, -0.4321, -0.4715, -0.7637],
          [-0.3415, -0.6740, -0.6019, -0.6422, -0.3222],
          [-0.2115, -0.5801, -0.4873, -0.2010, -0.2105],
          [-0.2828, -0.3532,  0.0789,  0.0295,  0.5485]]],


        [[[-0.0571, -0.1487,  0.2445,  0.1515,  0.1612],
          [ 0.2866,  0.2470,  0.6583,  0.3403,  0.4070],
          [ 0.6453,  0.6254,  0.5449,  0.6546,  0.1445],
          [ 0.6095,  0.5896,  0.5738,  0.2306, -0.1749],
          [ 0.4797,  0.3721,  0.0713, -0.0600, -0.3957]]],


        [[[ 0.1139,  0.2438,  0.1703,  0.2043, -0.0208],
          [-0.2897, -0.2650, -0.3174, -0.2389, -0.3643],
          [-0.3672, -0.5563, -0.3941, -0.3755, -0.5761],
          [-0.4190, -0.2552, -0.5526, -0.4076, -0.4256],
          [-0.2692, -0.0620, -0.0535,  0.0306,  0.0201]]],


        [[[-0.6225, -0.7957, -0.8842, -0.5623, -0.2483],
          [-0.5340, -0.7150, -0.5883, -0.4418, -0.1489],
          [-0.1521, -0.5608, -0.5126, -0.0201, -0.0826],
          [ 0.0936,  0.0661, -0.0775,  0.1305,  0.4683],
          [ 0.4881,  0.5746,  0.6691,  0.7247,  0.7972]]],


        [[[ 0.1888,  0.3280,  0.2671,  0.1250,  0.0114],
          [-0.0418, -0.1324, -0.1781, -0.2578, -0.2954],
          [-0.1935, -0.1607, -0.5522, -0.2182, -0.5801],
          [-0.1901, -0.1352, -0.2795, -0.4531, -0.3457],
          [-0.2448, -0.3123, -0.1161, -0.2851,  0.0359]]],


        [[[-0.6600, -0.6637, -0.3962, -0.1671, -0.3047],
          [-0.6681, -0.3964, -0.1500,  0.0630, -0.2450],
          [-0.1695, -0.1649,  0.0828,  0.1783,  0.2472],
          [-0.1946,  0.2294,  0.4247,  0.5246,  0.6361],
          [ 0.2315,  0.3996,  0.3433,  0.5782,  0.7381]]]])