tensor([-0.0100, -0.0261, -0.0380, -0.0020,  0.0183, -0.0563, -0.0191,  0.0316,
         0.0208,  0.0210,  0.0186, -0.0457,  0.0181,  0.0244, -0.0186, -0.0419,
        -0.0242,  0.0368, -0.0375,  0.0382,  0.0467,  0.0280, -0.0191,  0.0553,
        -0.0441, -0.0009, -0.0245, -0.0240,  0.0367, -0.0305,  0.0143, -0.0333,
         0.0227,  0.0065,  0.0372, -0.0150, -0.0125, -0.0276,  0.0017,  0.0082,
        -0.0491, -0.0322, -0.0185, -0.0105, -0.0026,  0.0079, -0.0454,  0.0501,
         0.0146,  0.0393,  0.0164,  0.0184,  0.0062, -0.0469,  0.0425, -0.0302,
         0.0246, -0.0423, -0.0446, -0.0108, -0.0297,  0.0276,  0.0215, -0.0268,
        -0.0187,  0.0216,  0.0143, -0.0003, -0.0360,  0.0195, -0.0080, -0.0215,
        -0.0467, -0.0324,  0.0425,  0.0081, -0.0045,  0.0409, -0.0358, -0.0574,
        -0.0087,  0.0154,  0.0411,  0.0170, -0.0343,  0.0056, -0.0062,  0.0355,
         0.0113, -0.0043,  0.0325,  0.0527, -0.0356, -0.0024,  0.0369,  0.0086,
         0.0227, -0.0278,  0.0225,  0.0302,  0.0415,  0.0405,  0.0187, -0.0411,
        -0.0219, -0.0067,  0.0006,  0.0280, -0.0547, -0.0390,  0.0242,  0.0296,
         0.0430, -0.0488, -0.0240, -0.0156,  0.0052,  0.0421,  0.0216, -0.0269])